<?xml version="1.0"?>
<opencv_storage>
<!-- Created using Computer Vision System Toolbox(tm) for MATLAB(R) -->
<!-- Version 9.0.0.341360 (R2016a) -->
<!-- Compatible with OpenCV 2.4 -->
<cascade>
  <stageType>BOOST</stageType>
  <featureType>HOG</featureType>
  <height>32</height>
  <width>39</width>
  <stageParams>
    <boostType>GAB</boostType>
    <minHitRate>9.9500000476837158e-01</minHitRate>
    <maxFalseAlarm>1.0000000474974513e-03</maxFalseAlarm>
    <weightTrimRate>9.4999999999999996e-01</weightTrimRate>
    <maxDepth>1</maxDepth>
    <maxWeakCount>100</maxWeakCount></stageParams>
  <featureParams>
    <maxCatCount>0</maxCatCount>
    <featSize>36</featSize></featureParams>
  <stageNum>3</stageNum>
  <stages>
    <!-- stage 0 -->
    <_>
      <maxWeakCount>6</maxWeakCount>
      <stageThreshold>9.7066295146942139e-01</stageThreshold>
      <weakClassifiers>
        <_>
          <internalNodes>
            0 -1 20 4.2241655290126801e-02</internalNodes>
          <leafValues>
            -9.5897436141967773e-01 7.9629629850387573e-01</leafValues></_>
        <_>
          <internalNodes>
            0 -1 9 4.5779868960380554e-02</internalNodes>
          <leafValues>
            -7.8012424707412720e-01 8.5002946853637695e-01</leafValues></_>
        <_>
          <internalNodes>
            0 -1 17 3.4235004335641861e-02</internalNodes>
          <leafValues>
            -9.8075002431869507e-01 5.7770353555679321e-01</leafValues></_>
        <_>
          <internalNodes>
            0 -1 15 2.2669801488518715e-02</internalNodes>
          <leafValues>
            -8.7703472375869751e-01 6.3314688205718994e-01</leafValues></_>
        <_>
          <internalNodes>
            0 -1 1 4.0199093520641327e-02</internalNodes>
          <leafValues>
            -7.2034853696823120e-01 8.3604395389556885e-01</leafValues></_>
        <_>
          <internalNodes>
            0 -1 13 3.4420073032379150e-02</internalNodes>
          <leafValues>
            -8.7492316961288452e-01 6.6286712884902954e-01</leafValues></_></weakClassifiers></_>
    <!-- stage 1 -->
    <_>
      <maxWeakCount>7</maxWeakCount>
      <stageThreshold>5.1355272531509399e-01</stageThreshold>
      <weakClassifiers>
        <_>
          <internalNodes>
            0 -1 19 4.0531557053327560e-02</internalNodes>
          <leafValues>
            -9.5721924304962158e-01 6.7241376638412476e-01</leafValues></_>
        <_>
          <internalNodes>
            0 -1 8 3.1345710158348083e-02</internalNodes>
          <leafValues>
            -8.5856175422668457e-01 7.8829616308212280e-01</leafValues></_>
        <_>
          <internalNodes>
            0 -1 5 8.9503135532140732e-03</internalNodes>
          <leafValues>
            6.6562163829803467e-01 -8.7422364950180054e-01</leafValues></_>
        <_>
          <internalNodes>
            0 -1 3 2.4806611239910126e-02</internalNodes>
          <leafValues>
            -7.5531423091888428e-01 8.5593390464782715e-01</leafValues></_>
        <_>
          <internalNodes>
            0 -1 14 3.5940119996666908e-03</internalNodes>
          <leafValues>
            6.6089582443237305e-01 -7.8164994716644287e-01</leafValues></_>
        <_>
          <internalNodes>
            0 -1 16 3.1060062348842621e-02</internalNodes>
          <leafValues>
            -6.8256497383117676e-01 8.3023077249526978e-01</leafValues></_>
        <_>
          <internalNodes>
            0 -1 2 4.7714475542306900e-02</internalNodes>
          <leafValues>
            -6.8334829807281494e-01 8.1793558597564697e-01</leafValues></_></weakClassifiers></_>
    <!-- stage 2 -->
    <_>
      <maxWeakCount>8</maxWeakCount>
      <stageThreshold>8.7974494695663452e-01</stageThreshold>
      <weakClassifiers>
        <_>
          <internalNodes>
            0 -1 11 1.8574085086584091e-02</internalNodes>
          <leafValues>
            -7.9439252614974976e-01 5.9292036294937134e-01</leafValues></_>
        <_>
          <internalNodes>
            0 -1 4 2.3977945093065500e-03</internalNodes>
          <leafValues>
            6.9253593683242798e-01 -6.7529284954071045e-01</leafValues></_>
        <_>
          <internalNodes>
            0 -1 18 6.1595484614372253e-02</internalNodes>
          <leafValues>
            -6.1351537704467773e-01 7.3663783073425293e-01</leafValues></_>
        <_>
          <internalNodes>
            0 -1 6 5.3714558482170105e-02</internalNodes>
          <leafValues>
            -7.0864838361740112e-01 7.3904597759246826e-01</leafValues></_>
        <_>
          <internalNodes>
            0 -1 10 7.8215422108769417e-03</internalNodes>
          <leafValues>
            5.8925241231918335e-01 -9.6276712417602539e-01</leafValues></_>
        <_>
          <internalNodes>
            0 -1 0 1.6039824113249779e-02</internalNodes>
          <leafValues>
            -8.8131058216094971e-01 4.3119969964027405e-01</leafValues></_>
        <_>
          <internalNodes>
            0 -1 7 3.1550459563732147e-02</internalNodes>
          <leafValues>
            -7.6397985219955444e-01 5.2279877662658691e-01</leafValues></_>
        <_>
          <internalNodes>
            0 -1 12 3.1531970947980881e-02</internalNodes>
          <leafValues>
            -5.8963882923126221e-01 7.8847253322601318e-01</leafValues></_></weakClassifiers></_></stages>
  <features>
    <_>
      <rect>
        0 0 8 8 19</rect></_>
    <_>
      <rect>
        0 8 8 8 0</rect></_>
    <_>
      <rect>
        0 8 8 8 1</rect></_>
    <_>
      <rect>
        4 0 8 8 23</rect></_>
    <_>
      <rect>
        4 16 8 8 18</rect></_>
    <_>
      <rect>
        4 16 8 8 20</rect></_>
    <_>
      <rect>
        8 0 8 8 2</rect></_>
    <_>
      <rect>
        8 0 8 8 23</rect></_>
    <_>
      <rect>
        12 0 8 8 14</rect></_>
    <_>
      <rect>
        12 8 8 8 11</rect></_>
    <_>
      <rect>
        20 0 8 8 8</rect></_>
    <_>
      <rect>
        20 0 8 8 35</rect></_>
    <_>
      <rect>
        20 12 8 8 16</rect></_>
    <_>
      <rect>
        20 16 8 8 29</rect></_>
    <_>
      <rect>
        20 16 8 8 33</rect></_>
    <_>
      <rect>
        4 0 8 16 2</rect></_>
    <_>
      <rect>
        20 0 8 16 14</rect></_>
    <_>
      <rect>
        0 12 16 8 23</rect></_>
    <_>
      <rect>
        0 16 16 8 22</rect></_>
    <_>
      <rect>
        4 16 16 8 23</rect></_>
    <_>
      <rect>
        4 16 16 8 29</rect></_></features></cascade>
</opencv_storage>
