<?xml version="1.0"?>
<opencv_storage>
<!-- Created using Computer Vision System Toolbox(tm) for MATLAB(R) -->
<!-- Version 9.0.0.341360 (R2016a) -->
<!-- Compatible with OpenCV 2.4 -->
<cascade>
  <stageType>BOOST</stageType>
  <featureType>HOG</featureType>
  <height>32</height>
  <width>39</width>
  <stageParams>
    <boostType>GAB</boostType>
    <minHitRate>9.9500000476837158e-01</minHitRate>
    <maxFalseAlarm>1.0000000149011612e-01</maxFalseAlarm>
    <weightTrimRate>9.4999999999999996e-01</weightTrimRate>
    <maxDepth>1</maxDepth>
    <maxWeakCount>100</maxWeakCount></stageParams>
  <featureParams>
    <maxCatCount>0</maxCatCount>
    <featSize>36</featSize></featureParams>
  <stageNum>4</stageNum>
  <stages>
    <!-- stage 0 -->
    <_>
      <maxWeakCount>4</maxWeakCount>
      <stageThreshold>-5.2824813127517700e-01</stageThreshold>
      <weakClassifiers>
        <_>
          <internalNodes>
            0 -1 16 4.2241655290126801e-02</internalNodes>
          <leafValues>
            -9.5897436141967773e-01 7.9629629850387573e-01</leafValues></_>
        <_>
          <internalNodes>
            0 -1 5 4.5779868960380554e-02</internalNodes>
          <leafValues>
            -7.8012424707412720e-01 8.5002946853637695e-01</leafValues></_>
        <_>
          <internalNodes>
            0 -1 13 3.4235004335641861e-02</internalNodes>
          <leafValues>
            -9.8075002431869507e-01 5.7770353555679321e-01</leafValues></_>
        <_>
          <internalNodes>
            0 -1 11 2.2669801488518715e-02</internalNodes>
          <leafValues>
            -8.7703472375869751e-01 6.3314688205718994e-01</leafValues></_></weakClassifiers></_>
    <!-- stage 1 -->
    <_>
      <maxWeakCount>4</maxWeakCount>
      <stageThreshold>-2.1849733591079712e-01</stageThreshold>
      <weakClassifiers>
        <_>
          <internalNodes>
            0 -1 3 3.3605904318392277e-03</internalNodes>
          <leafValues>
            7.1428573131561279e-01 -8.3414632081985474e-01</leafValues></_>
        <_>
          <internalNodes>
            0 -1 10 3.1325472518801689e-03</internalNodes>
          <leafValues>
            6.7204082012176514e-01 -7.7483737468719482e-01</leafValues></_>
        <_>
          <internalNodes>
            0 -1 8 3.2227091491222382e-02</internalNodes>
          <leafValues>
            -6.8414384126663208e-01 8.1824916601181030e-01</leafValues></_>
        <_>
          <internalNodes>
            0 -1 14 4.9263857305049896e-02</internalNodes>
          <leafValues>
            -8.9910024404525757e-01 6.2775200605392456e-01</leafValues></_></weakClassifiers></_>
    <!-- stage 2 -->
    <_>
      <maxWeakCount>5</maxWeakCount>
      <stageThreshold>9.4713144004344940e-02</stageThreshold>
      <weakClassifiers>
        <_>
          <internalNodes>
            0 -1 16 6.8001925945281982e-02</internalNodes>
          <leafValues>
            -8.7301588058471680e-01 5.6140351295471191e-01</leafValues></_>
        <_>
          <internalNodes>
            0 -1 0 4.3205022811889648e-02</internalNodes>
          <leafValues>
            -6.8161296844482422e-01 9.3001610040664673e-01</leafValues></_>
        <_>
          <internalNodes>
            0 -1 12 2.9138647019863129e-02</internalNodes>
          <leafValues>
            -8.7021094560623169e-01 6.8027395009994507e-01</leafValues></_>
        <_>
          <internalNodes>
            0 -1 4 2.7095869183540344e-02</internalNodes>
          <leafValues>
            -8.2964116334915161e-01 5.6230151653289795e-01</leafValues></_>
        <_>
          <internalNodes>
            0 -1 7 6.1554992571473122e-03</internalNodes>
          <leafValues>
            5.2283209562301636e-01 -8.9392536878585815e-01</leafValues></_></weakClassifiers></_>
    <!-- stage 3 -->
    <_>
      <maxWeakCount>5</maxWeakCount>
      <stageThreshold>4.2439070343971252e-01</stageThreshold>
      <weakClassifiers>
        <_>
          <internalNodes>
            0 -1 9 2.0986869931221008e-02</internalNodes>
          <leafValues>
            -6.2962961196899414e-01 7.0526313781738281e-01</leafValues></_>
        <_>
          <internalNodes>
            0 -1 1 3.2574415206909180e-02</internalNodes>
          <leafValues>
            -6.7736589908599854e-01 7.4502992630004883e-01</leafValues></_>
        <_>
          <internalNodes>
            0 -1 6 3.1384095549583435e-02</internalNodes>
          <leafValues>
            -7.2390741109848022e-01 6.9764405488967896e-01</leafValues></_>
        <_>
          <internalNodes>
            0 -1 15 7.4069015681743622e-02</internalNodes>
          <leafValues>
            -6.1180013418197632e-01 6.6810125112533569e-01</leafValues></_>
        <_>
          <internalNodes>
            0 -1 2 1.3293242081999779e-02</internalNodes>
          <leafValues>
            4.5229959487915039e-01 -8.9254081249237061e-01</leafValues></_></weakClassifiers></_></stages>
  <features>
    <_>
      <rect>
        0 0 8 8 18</rect></_>
    <_>
      <rect>
        0 8 8 8 1</rect></_>
    <_>
      <rect>
        0 12 8 8 20</rect></_>
    <_>
      <rect>
        4 16 8 8 19</rect></_>
    <_>
      <rect>
        8 0 8 8 23</rect></_>
    <_>
      <rect>
        12 8 8 8 11</rect></_>
    <_>
      <rect>
        16 0 8 8 29</rect></_>
    <_>
      <rect>
        20 0 8 8 8</rect></_>
    <_>
      <rect>
        20 8 8 8 16</rect></_>
    <_>
      <rect>
        20 12 8 8 16</rect></_>
    <_>
      <rect>
        20 16 8 8 33</rect></_>
    <_>
      <rect>
        4 0 8 16 2</rect></_>
    <_>
      <rect>
        0 0 16 8 14</rect></_>
    <_>
      <rect>
        0 12 16 8 23</rect></_>
    <_>
      <rect>
        0 16 16 8 23</rect></_>
    <_>
      <rect>
        4 16 16 8 22</rect></_>
    <_>
      <rect>
        4 16 16 8 29</rect></_></features></cascade>
</opencv_storage>
