<?xml version="1.0"?>
<opencv_storage>
<!-- Created using Computer Vision System Toolbox(tm) for MATLAB(R) -->
<!-- Version 9.0.0.341360 (R2016a) -->
<!-- Compatible with OpenCV 2.4 -->
<cascade>
  <stageType>BOOST</stageType>
  <featureType>HOG</featureType>
  <height>32</height>
  <width>43</width>
  <stageParams>
    <boostType>GAB</boostType>
    <minHitRate>9.9500000476837158e-01</minHitRate>
    <maxFalseAlarm>1.0000000149011612e-01</maxFalseAlarm>
    <weightTrimRate>9.4999999999999996e-01</weightTrimRate>
    <maxDepth>1</maxDepth>
    <maxWeakCount>100</maxWeakCount></stageParams>
  <featureParams>
    <maxCatCount>0</maxCatCount>
    <featSize>36</featSize></featureParams>
  <stageNum>6</stageNum>
  <stages>
    <!-- stage 0 -->
    <_>
      <maxWeakCount>3</maxWeakCount>
      <stageThreshold>-9.9034625291824341e-01</stageThreshold>
      <weakClassifiers>
        <_>
          <internalNodes>
            0 -1 6 7.6786845922470093e-02</internalNodes>
          <leafValues>
            -9.3301433324813843e-01 7.2881358861923218e-01</leafValues></_>
        <_>
          <internalNodes>
            0 -1 21 5.6540068238973618e-02</internalNodes>
          <leafValues>
            -9.5980739593505859e-01 5.5696588754653931e-01</leafValues></_>
        <_>
          <internalNodes>
            0 -1 12 4.9790412187576294e-02</internalNodes>
          <leafValues>
            -7.5935238599777222e-01 8.5727357864379883e-01</leafValues></_></weakClassifiers></_>
    <!-- stage 1 -->
    <_>
      <maxWeakCount>4</maxWeakCount>
      <stageThreshold>-2.3735770583152771e-01</stageThreshold>
      <weakClassifiers>
        <_>
          <internalNodes>
            0 -1 21 7.3747612535953522e-02</internalNodes>
          <leafValues>
            -9.3170732259750366e-01 6.7213112115859985e-01</leafValues></_>
        <_>
          <internalNodes>
            0 -1 16 2.5501016527414322e-02</internalNodes>
          <leafValues>
            -7.6684314012527466e-01 9.5759582519531250e-01</leafValues></_>
        <_>
          <internalNodes>
            0 -1 10 1.2347054667770863e-02</internalNodes>
          <leafValues>
            -9.5331317186355591e-01 6.5636801719665527e-01</leafValues></_>
        <_>
          <internalNodes>
            0 -1 1 3.1447175890207291e-02</internalNodes>
          <leafValues>
            -7.9901373386383057e-01 8.7840223312377930e-01</leafValues></_></weakClassifiers></_>
    <!-- stage 2 -->
    <_>
      <maxWeakCount>6</maxWeakCount>
      <stageThreshold>-5.0690704584121704e-01</stageThreshold>
      <weakClassifiers>
        <_>
          <internalNodes>
            0 -1 2 2.0788930356502533e-02</internalNodes>
          <leafValues>
            5.3030300140380859e-01 -9.1794872283935547e-01</leafValues></_>
        <_>
          <internalNodes>
            0 -1 15 3.2654721289873123e-02</internalNodes>
          <leafValues>
            -6.5866470336914062e-01 6.7431288957595825e-01</leafValues></_>
        <_>
          <internalNodes>
            0 -1 13 2.0722167566418648e-02</internalNodes>
          <leafValues>
            -7.4947357177734375e-01 6.6400784254074097e-01</leafValues></_>
        <_>
          <internalNodes>
            0 -1 24 1.4026797376573086e-02</internalNodes>
          <leafValues>
            -9.0977680683135986e-01 4.6929824352264404e-01</leafValues></_>
        <_>
          <internalNodes>
            0 -1 22 2.1159793250262737e-03</internalNodes>
          <leafValues>
            7.6398509740829468e-01 -6.0705530643463135e-01</leafValues></_>
        <_>
          <internalNodes>
            0 -1 5 1.8244864419102669e-02</internalNodes>
          <leafValues>
            -8.0846142768859863e-01 5.5478274822235107e-01</leafValues></_></weakClassifiers></_>
    <!-- stage 3 -->
    <_>
      <maxWeakCount>8</maxWeakCount>
      <stageThreshold>-1.0241283178329468e+00</stageThreshold>
      <weakClassifiers>
        <_>
          <internalNodes>
            0 -1 20 3.7280677352100611e-03</internalNodes>
          <leafValues>
            3.5099336504936218e-01 -9.2045456171035767e-01</leafValues></_>
        <_>
          <internalNodes>
            0 -1 14 4.2810374870896339e-03</internalNodes>
          <leafValues>
            4.2092150449752808e-01 -7.9022961854934692e-01</leafValues></_>
        <_>
          <internalNodes>
            0 -1 9 1.8468461930751801e-02</internalNodes>
          <leafValues>
            4.9853447079658508e-01 -7.4716901779174805e-01</leafValues></_>
        <_>
          <internalNodes>
            0 -1 24 2.1590035408735275e-02</internalNodes>
          <leafValues>
            -6.2644231319427490e-01 6.7034584283828735e-01</leafValues></_>
        <_>
          <internalNodes>
            0 -1 18 6.8116858601570129e-02</internalNodes>
          <leafValues>
            -8.3042323589324951e-01 5.4973298311233521e-01</leafValues></_>
        <_>
          <internalNodes>
            0 -1 23 6.4116537570953369e-02</internalNodes>
          <leafValues>
            -7.9434591531753540e-01 4.9549201130867004e-01</leafValues></_>
        <_>
          <internalNodes>
            0 -1 0 3.1631324440240860e-02</internalNodes>
          <leafValues>
            -5.5172955989837646e-01 6.8382614850997925e-01</leafValues></_>
        <_>
          <internalNodes>
            0 -1 4 9.5822187140583992e-03</internalNodes>
          <leafValues>
            3.9965510368347168e-01 -9.7311353683471680e-01</leafValues></_></weakClassifiers></_>
    <!-- stage 4 -->
    <_>
      <maxWeakCount>3</maxWeakCount>
      <stageThreshold>8.8902175426483154e-01</stageThreshold>
      <weakClassifiers>
        <_>
          <internalNodes>
            0 -1 11 1.3396488502621651e-02</internalNodes>
          <leafValues>
            -6.8421053886413574e-01 8.9285713434219360e-01</leafValues></_>
        <_>
          <internalNodes>
            0 -1 8 1.6243904829025269e-02</internalNodes>
          <leafValues>
            8.0262947082519531e-01 -6.8734788894653320e-01</leafValues></_>
        <_>
          <internalNodes>
            0 -1 3 1.7922662198543549e-02</internalNodes>
          <leafValues>
            -6.9040149450302124e-01 7.7060282230377197e-01</leafValues></_></weakClassifiers></_>
    <!-- stage 5 -->
    <_>
      <maxWeakCount>4</maxWeakCount>
      <stageThreshold>1.4686630964279175e+00</stageThreshold>
      <weakClassifiers>
        <_>
          <internalNodes>
            0 -1 17 3.7596903741359711e-02</internalNodes>
          <leafValues>
            -8.0952382087707520e-01 8.9380532503128052e-01</leafValues></_>
        <_>
          <internalNodes>
            0 -1 7 1.0139947757124901e-02</internalNodes>
          <leafValues>
            -8.3339911699295044e-01 8.0230772495269775e-01</leafValues></_>
        <_>
          <internalNodes>
            0 -1 1 1.6978800296783447e-02</internalNodes>
          <leafValues>
            -8.4166187047958374e-01 6.8915516138076782e-01</leafValues></_>
        <_>
          <internalNodes>
            0 -1 19 1.1793659999966621e-02</internalNodes>
          <leafValues>
            -8.8734477758407593e-01 7.8672403097152710e-01</leafValues></_></weakClassifiers></_></stages>
  <features>
    <_>
      <rect>
        0 0 8 8 1</rect></_>
    <_>
      <rect>
        0 0 8 8 2</rect></_>
    <_>
      <rect>
        0 8 8 8 22</rect></_>
    <_>
      <rect>
        0 12 8 8 7</rect></_>
    <_>
      <rect>
        0 16 8 8 19</rect></_>
    <_>
      <rect>
        4 12 8 8 11</rect></_>
    <_>
      <rect>
        12 0 8 8 3</rect></_>
    <_>
      <rect>
        16 12 8 8 11</rect></_>
    <_>
      <rect>
        20 0 8 8 8</rect></_>
    <_>
      <rect>
        24 0 8 8 31</rect></_>
    <_>
      <rect>
        24 0 8 8 34</rect></_>
    <_>
      <rect>
        24 8 8 8 35</rect></_>
    <_>
      <rect>
        24 12 8 8 16</rect></_>
    <_>
      <rect>
        24 16 8 8 29</rect></_>
    <_>
      <rect>
        24 16 8 8 32</rect></_>
    <_>
      <rect>
        0 0 8 16 0</rect></_>
    <_>
      <rect>
        0 0 8 16 25</rect></_>
    <_>
      <rect>
        8 0 8 16 3</rect></_>
    <_>
      <rect>
        16 0 8 16 3</rect></_>
    <_>
      <rect>
        0 0 16 8 26</rect></_>
    <_>
      <rect>
        0 16 16 8 35</rect></_>
    <_>
      <rect>
        4 16 16 8 30</rect></_>
    <_>
      <rect>
        4 16 16 8 33</rect></_>
    <_>
      <rect>
        8 16 16 8 22</rect></_>
    <_>
      <rect>
        4 0 16 16 14</rect></_></features></cascade>
</opencv_storage>
