<?xml version="1.0"?>
<opencv_storage>
<!-- Created using Computer Vision System Toolbox(tm) for MATLAB(R) -->
<!-- Version 9.0.0.341360 (R2016a) -->
<!-- Compatible with OpenCV 2.4 -->
<cascade>
  <stageType>BOOST</stageType>
  <featureType>HOG</featureType>
  <height>32</height>
  <width>43</width>
  <stageParams>
    <boostType>GAB</boostType>
    <minHitRate>9.9500000476837158e-01</minHitRate>
    <maxFalseAlarm>5.0000000745058060e-02</maxFalseAlarm>
    <weightTrimRate>9.4999999999999996e-01</weightTrimRate>
    <maxDepth>1</maxDepth>
    <maxWeakCount>100</maxWeakCount></stageParams>
  <featureParams>
    <maxCatCount>0</maxCatCount>
    <featSize>36</featSize></featureParams>
  <stageNum>4</stageNum>
  <stages>
    <!-- stage 0 -->
    <_>
      <maxWeakCount>4</maxWeakCount>
      <stageThreshold>-4.0366110205650330e-01</stageThreshold>
      <weakClassifiers>
        <_>
          <internalNodes>
            0 -1 2 7.6786845922470093e-02</internalNodes>
          <leafValues>
            -9.3301433324813843e-01 7.2881358861923218e-01</leafValues></_>
        <_>
          <internalNodes>
            0 -1 14 5.6540068238973618e-02</internalNodes>
          <leafValues>
            -9.5980739593505859e-01 5.5696588754653931e-01</leafValues></_>
        <_>
          <internalNodes>
            0 -1 6 4.9790412187576294e-02</internalNodes>
          <leafValues>
            -7.5935238599777222e-01 8.5727357864379883e-01</leafValues></_>
        <_>
          <internalNodes>
            0 -1 12 3.0584663152694702e-02</internalNodes>
          <leafValues>
            5.8668512105941772e-01 -8.5520762205123901e-01</leafValues></_></weakClassifiers></_>
    <!-- stage 1 -->
    <_>
      <maxWeakCount>5</maxWeakCount>
      <stageThreshold>9.7920939326286316e-02</stageThreshold>
      <weakClassifiers>
        <_>
          <internalNodes>
            0 -1 10 1.9941497594118118e-02</internalNodes>
          <leafValues>
            -8.3259910345077515e-01 8.0000001192092896e-01</leafValues></_>
        <_>
          <internalNodes>
            0 -1 13 4.6838424168527126e-03</internalNodes>
          <leafValues>
            6.4423972368240356e-01 -8.9136195182800293e-01</leafValues></_>
        <_>
          <internalNodes>
            0 -1 0 2.2663220763206482e-02</internalNodes>
          <leafValues>
            -8.9103436470031738e-01 6.7952221632003784e-01</leafValues></_>
        <_>
          <internalNodes>
            0 -1 8 2.0633729174733162e-02</internalNodes>
          <leafValues>
            -8.2132297754287720e-01 6.0568749904632568e-01</leafValues></_>
        <_>
          <internalNodes>
            0 -1 11 7.3847826570272446e-03</internalNodes>
          <leafValues>
            -8.9526236057281494e-01 5.7162714004516602e-01</leafValues></_></weakClassifiers></_>
    <!-- stage 2 -->
    <_>
      <maxWeakCount>5</maxWeakCount>
      <stageThreshold>1.1410678923130035e-01</stageThreshold>
      <weakClassifiers>
        <_>
          <internalNodes>
            0 -1 9 3.1369209289550781e-02</internalNodes>
          <leafValues>
            -7.5565612316131592e-01 5.4716980457305908e-01</leafValues></_>
        <_>
          <internalNodes>
            0 -1 5 8.9601509273052216e-02</internalNodes>
          <leafValues>
            -8.2524245977401733e-01 4.9942418932914734e-01</leafValues></_>
        <_>
          <internalNodes>
            0 -1 1 2.2967111319303513e-02</internalNodes>
          <leafValues>
            4.7305604815483093e-01 -8.5883122682571411e-01</leafValues></_>
        <_>
          <internalNodes>
            0 -1 15 9.8975419998168945e-02</internalNodes>
          <leafValues>
            -7.8150957822799683e-01 5.5851316452026367e-01</leafValues></_>
        <_>
          <internalNodes>
            0 -1 7 1.8110655248165131e-02</internalNodes>
          <leafValues>
            7.0785361528396606e-01 -6.2239086627960205e-01</leafValues></_></weakClassifiers></_>
    <!-- stage 3 -->
    <_>
      <maxWeakCount>5</maxWeakCount>
      <stageThreshold>2.2049133479595184e-01</stageThreshold>
      <weakClassifiers>
        <_>
          <internalNodes>
            0 -1 16 1.2857482768595219e-02</internalNodes>
          <leafValues>
            -9.0322577953338623e-01 6.8253970146179199e-01</leafValues></_>
        <_>
          <internalNodes>
            0 -1 4 1.8714055418968201e-02</internalNodes>
          <leafValues>
            -8.1976038217544556e-01 6.3533920049667358e-01</leafValues></_>
        <_>
          <internalNodes>
            0 -1 14 1.2111525982618332e-01</internalNodes>
          <leafValues>
            -7.3440027236938477e-01 8.1342601776123047e-01</leafValues></_>
        <_>
          <internalNodes>
            0 -1 17 4.3704807758331299e-02</internalNodes>
          <leafValues>
            -9.0881365537643433e-01 6.0850989818572998e-01</leafValues></_>
        <_>
          <internalNodes>
            0 -1 3 8.7444372475147247e-03</internalNodes>
          <leafValues>
            -9.3452978134155273e-01 5.4582643508911133e-01</leafValues></_></weakClassifiers></_></stages>
  <features>
    <_>
      <rect>
        0 0 8 8 2</rect></_>
    <_>
      <rect>
        0 8 8 8 22</rect></_>
    <_>
      <rect>
        12 0 8 8 3</rect></_>
    <_>
      <rect>
        12 4 8 8 20</rect></_>
    <_>
      <rect>
        12 12 8 8 3</rect></_>
    <_>
      <rect>
        12 16 8 8 22</rect></_>
    <_>
      <rect>
        24 12 8 8 16</rect></_>
    <_>
      <rect>
        24 12 8 8 31</rect></_>
    <_>
      <rect>
        24 16 8 8 29</rect></_>
    <_>
      <rect>
        0 0 8 16 0</rect></_>
    <_>
      <rect>
        0 0 8 16 25</rect></_>
    <_>
      <rect>
        0 0 16 8 33</rect></_>
    <_>
      <rect>
        0 4 16 8 22</rect></_>
    <_>
      <rect>
        0 16 16 8 35</rect></_>
    <_>
      <rect>
        4 16 16 8 30</rect></_>
    <_>
      <rect>
        8 0 16 8 3</rect></_>
    <_>
      <rect>
        8 0 16 8 34</rect></_>
    <_>
      <rect>
        0 0 16 16 13</rect></_></features></cascade>
</opencv_storage>
