<?xml version="1.0"?>
<opencv_storage>
<!-- Created using Computer Vision System Toolbox(tm) for MATLAB(R) -->
<!-- Version 9.0.0.341360 (R2016a) -->
<!-- Compatible with OpenCV 2.4 -->
<cascade>
  <stageType>BOOST</stageType>
  <featureType>HOG</featureType>
  <height>32</height>
  <width>43</width>
  <stageParams>
    <boostType>GAB</boostType>
    <minHitRate>9.9500000476837158e-01</minHitRate>
    <maxFalseAlarm>1.5000000596046448e-01</maxFalseAlarm>
    <weightTrimRate>9.4999999999999996e-01</weightTrimRate>
    <maxDepth>1</maxDepth>
    <maxWeakCount>100</maxWeakCount></stageParams>
  <featureParams>
    <maxCatCount>0</maxCatCount>
    <featSize>36</featSize></featureParams>
  <stageNum>5</stageNum>
  <stages>
    <!-- stage 0 -->
    <_>
      <maxWeakCount>3</maxWeakCount>
      <stageThreshold>-9.9034625291824341e-01</stageThreshold>
      <weakClassifiers>
        <_>
          <internalNodes>
            0 -1 3 7.6786845922470093e-02</internalNodes>
          <leafValues>
            -9.3301433324813843e-01 7.2881358861923218e-01</leafValues></_>
        <_>
          <internalNodes>
            0 -1 17 5.6540068238973618e-02</internalNodes>
          <leafValues>
            -9.5980739593505859e-01 5.5696588754653931e-01</leafValues></_>
        <_>
          <internalNodes>
            0 -1 7 4.9790412187576294e-02</internalNodes>
          <leafValues>
            -7.5935238599777222e-01 8.5727357864379883e-01</leafValues></_></weakClassifiers></_>
    <!-- stage 1 -->
    <_>
      <maxWeakCount>4</maxWeakCount>
      <stageThreshold>-2.3735770583152771e-01</stageThreshold>
      <weakClassifiers>
        <_>
          <internalNodes>
            0 -1 17 7.3747612535953522e-02</internalNodes>
          <leafValues>
            -9.3170732259750366e-01 6.7213112115859985e-01</leafValues></_>
        <_>
          <internalNodes>
            0 -1 13 2.5501016527414322e-02</internalNodes>
          <leafValues>
            -7.6684314012527466e-01 9.5759582519531250e-01</leafValues></_>
        <_>
          <internalNodes>
            0 -1 6 1.2347054667770863e-02</internalNodes>
          <leafValues>
            -9.5331317186355591e-01 6.5636801719665527e-01</leafValues></_>
        <_>
          <internalNodes>
            0 -1 0 3.1447175890207291e-02</internalNodes>
          <leafValues>
            -7.9901373386383057e-01 8.7840223312377930e-01</leafValues></_></weakClassifiers></_>
    <!-- stage 2 -->
    <_>
      <maxWeakCount>4</maxWeakCount>
      <stageThreshold>-5.2381122112274170e-01</stageThreshold>
      <weakClassifiers>
        <_>
          <internalNodes>
            0 -1 1 2.0788930356502533e-02</internalNodes>
          <leafValues>
            5.3030300140380859e-01 -9.1794872283935547e-01</leafValues></_>
        <_>
          <internalNodes>
            0 -1 12 3.2654721289873123e-02</internalNodes>
          <leafValues>
            -6.5866470336914062e-01 6.7431288957595825e-01</leafValues></_>
        <_>
          <internalNodes>
            0 -1 10 2.0722167566418648e-02</internalNodes>
          <leafValues>
            -7.4947357177734375e-01 6.6400784254074097e-01</leafValues></_>
        <_>
          <internalNodes>
            0 -1 19 1.4026797376573086e-02</internalNodes>
          <leafValues>
            -9.0977680683135986e-01 4.6929824352264404e-01</leafValues></_></weakClassifiers></_>
    <!-- stage 3 -->
    <_>
      <maxWeakCount>5</maxWeakCount>
      <stageThreshold>-1.1343295127153397e-01</stageThreshold>
      <weakClassifiers>
        <_>
          <internalNodes>
            0 -1 11 4.2810374870896339e-03</internalNodes>
          <leafValues>
            4.5736435055732727e-01 -8.4848487377166748e-01</leafValues></_>
        <_>
          <internalNodes>
            0 -1 16 3.7474934943020344e-03</internalNodes>
          <leafValues>
            4.6605253219604492e-01 -8.8595509529113770e-01</leafValues></_>
        <_>
          <internalNodes>
            0 -1 15 7.4805170297622681e-02</internalNodes>
          <leafValues>
            -7.7254188060760498e-01 5.1146984100341797e-01</leafValues></_>
        <_>
          <internalNodes>
            0 -1 8 2.0826043561100960e-02</internalNodes>
          <leafValues>
            7.2555124759674072e-01 -6.6733139753341675e-01</leafValues></_>
        <_>
          <internalNodes>
            0 -1 18 1.1905485764145851e-02</internalNodes>
          <leafValues>
            -8.8098824024200439e-01 4.8142278194427490e-01</leafValues></_></weakClassifiers></_>
    <!-- stage 4 -->
    <_>
      <maxWeakCount>5</maxWeakCount>
      <stageThreshold>2.8964966535568237e-01</stageThreshold>
      <weakClassifiers>
        <_>
          <internalNodes>
            0 -1 5 3.1757839024066925e-02</internalNodes>
          <leafValues>
            5.2517986297607422e-01 -8.7999999523162842e-01</leafValues></_>
        <_>
          <internalNodes>
            0 -1 4 1.4317491650581360e-01</internalNodes>
          <leafValues>
            -5.6514561176300049e-01 8.1818807125091553e-01</leafValues></_>
        <_>
          <internalNodes>
            0 -1 14 8.3940178155899048e-03</internalNodes>
          <leafValues>
            -7.9359078407287598e-01 6.0469090938568115e-01</leafValues></_>
        <_>
          <internalNodes>
            0 -1 2 9.6289012581110001e-03</internalNodes>
          <leafValues>
            5.3469848632812500e-01 -8.3774805068969727e-01</leafValues></_>
        <_>
          <internalNodes>
            0 -1 9 2.8392989188432693e-02</internalNodes>
          <leafValues>
            -7.8792780637741089e-01 6.3387024402618408e-01</leafValues></_></weakClassifiers></_></stages>
  <features>
    <_>
      <rect>
        0 0 8 8 2</rect></_>
    <_>
      <rect>
        0 8 8 8 22</rect></_>
    <_>
      <rect>
        0 16 8 8 20</rect></_>
    <_>
      <rect>
        12 0 8 8 3</rect></_>
    <_>
      <rect>
        20 16 8 8 30</rect></_>
    <_>
      <rect>
        24 0 8 8 31</rect></_>
    <_>
      <rect>
        24 0 8 8 34</rect></_>
    <_>
      <rect>
        24 12 8 8 16</rect></_>
    <_>
      <rect>
        24 12 8 8 31</rect></_>
    <_>
      <rect>
        24 16 8 8 17</rect></_>
    <_>
      <rect>
        24 16 8 8 29</rect></_>
    <_>
      <rect>
        24 16 8 8 32</rect></_>
    <_>
      <rect>
        0 0 8 16 0</rect></_>
    <_>
      <rect>
        0 0 8 16 25</rect></_>
    <_>
      <rect>
        4 0 8 16 23</rect></_>
    <_>
      <rect>
        0 0 16 8 13</rect></_>
    <_>
      <rect>
        0 16 16 8 35</rect></_>
    <_>
      <rect>
        4 16 16 8 30</rect></_>
    <_>
      <rect>
        8 12 16 8 2</rect></_>
    <_>
      <rect>
        4 0 16 16 14</rect></_></features></cascade>
</opencv_storage>
